{
  "action_count": 5,
  "algorithm": "dqn",
  "epochs_completed": 5,
  "gradient_steps": 250,
  "policy_bias": [
    -0.002166273072361946,
    -0.0023525995202362537,
    -0.002050664508715272,
    -0.002839556895196438,
    -0.0022849692031741142
  ],
  "policy_weights": [
    [
      -0.05618464946746826,
      -0.055422596633434296,
      -0.056159790605306625,
      -0.05615828558802605,
      -0.05448916181921959
    ],
    [
      0.05623779818415642,
      0.0563802495598793,
      0.0549096018075943,
      0.054426416754722595,
      0.05441264808177948
    ]
  ],
  "seed": 42,
  "state_dim": 2,
  "target_bias": [
    -0.002166273072361946,
    -0.0023525995202362537,
    -0.002050664508715272,
    -0.002839556895196438,
    -0.0022849692031741142
  ],
  "target_weights": [
    [
      -0.05618464946746826,
      -0.055422596633434296,
      -0.056159790605306625,
      -0.05615828558802605,
      -0.05448916181921959
    ],
    [
      0.05623779818415642,
      0.0563802495598793,
      0.0549096018075943,
      0.054426416754722595,
      0.05441264808177948
    ]
  ],
  "training_config": {
    "action_dim": 5,
    "algorithm": "dqn",
    "batch_size": 64,
    "gamma": 0.99,
    "hidden_sizes": [
      64,
      64
    ],
    "input_dim": 2,
    "learning_rate": 0.001,
    "seed": 42,
    "target_update_interval": 5
  }
}