{
  "action_count": 5,
  "algorithm": "dqn",
  "epochs_completed": 10,
  "gradient_steps": 500,
  "policy_bias": [
    -0.004288080148398876,
    -0.004954025149345398,
    -0.003862285753712058,
    -0.00543819647282362,
    -0.004568932577967644
  ],
  "policy_weights": [
    [
      -0.10179293900728226,
      -0.10104769468307495,
      -0.09805218875408173,
      -0.10212530940771103,
      -0.10251699388027191
    ],
    [
      0.10049549490213394,
      0.10040999203920364,
      0.0998891144990921,
      0.10025812685489655,
      0.10122239589691162
    ]
  ],
  "seed": 42,
  "state_dim": 2,
  "target_bias": [
    -0.004288080148398876,
    -0.004954025149345398,
    -0.003862285753712058,
    -0.00543819647282362,
    -0.004568932577967644
  ],
  "target_weights": [
    [
      -0.10179293900728226,
      -0.10104769468307495,
      -0.09805218875408173,
      -0.10212530940771103,
      -0.10251699388027191
    ],
    [
      0.10049549490213394,
      0.10040999203920364,
      0.0998891144990921,
      0.10025812685489655,
      0.10122239589691162
    ]
  ],
  "training_config": {
    "action_dim": 5,
    "algorithm": "dqn",
    "batch_size": 64,
    "gamma": 0.99,
    "hidden_sizes": [
      64,
      64
    ],
    "input_dim": 2,
    "learning_rate": 0.001,
    "seed": 42,
    "target_update_interval": 5
  }
}