{
  "action_count": 5,
  "algorithm": "dqn",
  "epochs_completed": 15,
  "gradient_steps": 750,
  "policy_bias": [
    -0.006393609568476677,
    -0.007317651528865099,
    -0.0054131424985826015,
    -0.008168235421180725,
    -0.006787868216633797
  ],
  "policy_weights": [
    [
      -0.1315600574016571,
      -0.12999798357486725,
      -0.12927035987377167,
      -0.1314748078584671,
      -0.12916173040866852
    ],
    [
      0.128768652677536,
      0.12865841388702393,
      0.12846247851848602,
      0.12974345684051514,
      0.12881118059158325
    ]
  ],
  "seed": 42,
  "state_dim": 2,
  "target_bias": [
    -0.006393609568476677,
    -0.007317651528865099,
    -0.0054131424985826015,
    -0.008168235421180725,
    -0.006787868216633797
  ],
  "target_weights": [
    [
      -0.1315600574016571,
      -0.12999798357486725,
      -0.12927035987377167,
      -0.1314748078584671,
      -0.12916173040866852
    ],
    [
      0.128768652677536,
      0.12865841388702393,
      0.12846247851848602,
      0.12974345684051514,
      0.12881118059158325
    ]
  ],
  "training_config": {
    "action_dim": 5,
    "algorithm": "dqn",
    "batch_size": 64,
    "gamma": 0.99,
    "hidden_sizes": [
      64,
      64
    ],
    "input_dim": 2,
    "learning_rate": 0.001,
    "seed": 42,
    "target_update_interval": 5
  }
}