{
  "action_count": 5,
  "algorithm": "dqn",
  "epochs_completed": 20,
  "gradient_steps": 1000,
  "policy_bias": [
    -0.008403200656175613,
    -0.009509183466434479,
    -0.007083897478878498,
    -0.010622086003422737,
    -0.008913346566259861
  ],
  "policy_weights": [
    [
      -0.1481504887342453,
      -0.14679308235645294,
      -0.14758391678333282,
      -0.14573001861572266,
      -0.14610791206359863
    ],
    [
      0.14610740542411804,
      0.14598813652992249,
      0.1454005390405655,
      0.14580073952674866,
      0.1450669765472412
    ]
  ],
  "seed": 42,
  "state_dim": 2,
  "target_bias": [
    -0.008403200656175613,
    -0.009509183466434479,
    -0.007083897478878498,
    -0.010622086003422737,
    -0.008913346566259861
  ],
  "target_weights": [
    [
      -0.1481504887342453,
      -0.14679308235645294,
      -0.14758391678333282,
      -0.14573001861572266,
      -0.14610791206359863
    ],
    [
      0.14610740542411804,
      0.14598813652992249,
      0.1454005390405655,
      0.14580073952674866,
      0.1450669765472412
    ]
  ],
  "training_config": {
    "action_dim": 5,
    "algorithm": "dqn",
    "batch_size": 64,
    "gamma": 0.99,
    "hidden_sizes": [
      64,
      64
    ],
    "input_dim": 2,
    "learning_rate": 0.001,
    "seed": 42,
    "target_update_interval": 5
  }
}